
\data\
ngram 1=7
ngram 2=9
ngram 3=8

\1-grams:
-0.887296	</s>
-99	<s>	-0.196295
-0.691001	a	-0.196295
-0.691001	b	-0.196295
-0.887296	c
-0.887296	d	-0.056116
-0.691001	e	-0.196295

\2-grams:
-0.600600	<s> a	-0.109144
-0.691001	<s> c	-0.109144
-0.691001	<s> d	-0.109144
-0.306919	a b	-0.109144
-0.350541	b c	-0.109144
-0.887296	c d	-0.109144
-0.628694	d </s>
-0.747117	d e
-0.350541	e </s>

\3-grams:
-0.217618	<s> a b
-0.490737	<s> c d
-0.441947	<s> d e
-0.244727	a b c
-0.490737	b c d
-0.531669	c d </s>
-0.601465	c d e
-0.350541	d e </s>

\end\
