
\data\
ngram 1=5
ngram 2=4
ngram 3=2

\1-grams:
-0.793946	</s>
-99	<s>	0.000000
-0.634245	a
-0.634245	b
-0.425969	c

\2-grams:
-0.634245	<s> a
-0.425969	<s> c
-0.634245	a b
-0.425969	b c

\3-grams:
-0.634245	<s> a b
-0.425969	a b c

\end\
